<GAP_2020_5_4_-300_14_18_32_146>
<Potential label="GAP_2020_5_4_-300_14_18_32_146" init_args="IP GAP label=GAP_2020_5_4_-300_14_18_32_146"/>
<GAP_params label="GAP_2020_5_4_-300_14_18_32_146" gap_version="1587393685">
  <GAP_data do_core="F">
    <e0 Z="1" value="3.2100000000000000"/>
    <e0 Z="2" value=".00000000000000000E+000"/>
    <e0 Z="3" value=".00000000000000000E+000"/>
    <e0 Z="4" value=".00000000000000000E+000"/>
    <e0 Z="5" value=".00000000000000000E+000"/>
    <e0 Z="6" value=".00000000000000000E+000"/>
    <e0 Z="7" value=".00000000000000000E+000"/>
    <e0 Z="8" value="4.5999999999999996"/>
    <e0 Z="9" value=".00000000000000000E+000"/>
    <e0 Z="10" value=".00000000000000000E+000"/>
    <e0 Z="11" value=".00000000000000000E+000"/>
    <e0 Z="12" value=".00000000000000000E+000"/>
    <e0 Z="13" value=".00000000000000000E+000"/>
    <e0 Z="14" value=".00000000000000000E+000"/>
    <e0 Z="15" value=".00000000000000000E+000"/>
    <e0 Z="16" value=".00000000000000000E+000"/>
    <e0 Z="17" value=".00000000000000000E+000"/>
    <e0 Z="18" value=".00000000000000000E+000"/>
    <e0 Z="19" value=".00000000000000000E+000"/>
    <e0 Z="20" value=".00000000000000000E+000"/>
    <e0 Z="21" value=".00000000000000000E+000"/>
    <e0 Z="22" value=".00000000000000000E+000"/>
    <e0 Z="23" value=".00000000000000000E+000"/>
    <e0 Z="24" value=".00000000000000000E+000"/>
    <e0 Z="25" value=".00000000000000000E+000"/>
    <e0 Z="26" value=".00000000000000000E+000"/>
    <e0 Z="27" value=".00000000000000000E+000"/>
    <e0 Z="28" value=".00000000000000000E+000"/>
    <e0 Z="29" value=".00000000000000000E+000"/>
    <e0 Z="30" value=".00000000000000000E+000"/>
    <e0 Z="31" value=".00000000000000000E+000"/>
    <e0 Z="32" value=".00000000000000000E+000"/>
    <e0 Z="33" value=".00000000000000000E+000"/>
    <e0 Z="34" value=".00000000000000000E+000"/>
    <e0 Z="35" value=".00000000000000000E+000"/>
    <e0 Z="36" value=".00000000000000000E+000"/>
    <e0 Z="37" value=".00000000000000000E+000"/>
    <e0 Z="38" value=".00000000000000000E+000"/>
    <e0 Z="39" value=".00000000000000000E+000"/>
    <e0 Z="40" value=".00000000000000000E+000"/>
    <e0 Z="41" value=".00000000000000000E+000"/>
    <e0 Z="42" value=".00000000000000000E+000"/>
    <e0 Z="43" value=".00000000000000000E+000"/>
    <e0 Z="44" value=".00000000000000000E+000"/>
    <e0 Z="45" value=".00000000000000000E+000"/>
    <e0 Z="46" value=".00000000000000000E+000"/>
    <e0 Z="47" value=".00000000000000000E+000"/>
    <e0 Z="48" value=".00000000000000000E+000"/>
    <e0 Z="49" value=".00000000000000000E+000"/>
    <e0 Z="50" value=".00000000000000000E+000"/>
    <e0 Z="51" value=".00000000000000000E+000"/>
    <e0 Z="52" value=".00000000000000000E+000"/>
    <e0 Z="53" value=".00000000000000000E+000"/>
    <e0 Z="54" value=".00000000000000000E+000"/>
    <e0 Z="55" value=".00000000000000000E+000"/>
    <e0 Z="56" value=".00000000000000000E+000"/>
    <e0 Z="57" value=".00000000000000000E+000"/>
    <e0 Z="58" value=".00000000000000000E+000"/>
    <e0 Z="59" value=".00000000000000000E+000"/>
    <e0 Z="60" value=".00000000000000000E+000"/>
    <e0 Z="61" value=".00000000000000000E+000"/>
    <e0 Z="62" value=".00000000000000000E+000"/>
    <e0 Z="63" value=".00000000000000000E+000"/>
    <e0 Z="64" value=".00000000000000000E+000"/>
    <e0 Z="65" value=".00000000000000000E+000"/>
    <e0 Z="66" value=".00000000000000000E+000"/>
    <e0 Z="67" value=".00000000000000000E+000"/>
    <e0 Z="68" value=".00000000000000000E+000"/>
    <e0 Z="69" value=".00000000000000000E+000"/>
    <e0 Z="70" value=".00000000000000000E+000"/>
    <e0 Z="71" value=".00000000000000000E+000"/>
    <e0 Z="72" value=".00000000000000000E+000"/>
    <e0 Z="73" value=".00000000000000000E+000"/>
    <e0 Z="74" value=".00000000000000000E+000"/>
    <e0 Z="75" value=".00000000000000000E+000"/>
    <e0 Z="76" value=".00000000000000000E+000"/>
    <e0 Z="77" value=".00000000000000000E+000"/>
    <e0 Z="78" value=".00000000000000000E+000"/>
    <e0 Z="79" value=".00000000000000000E+000"/>
    <e0 Z="80" value=".00000000000000000E+000"/>
    <e0 Z="81" value=".00000000000000000E+000"/>
    <e0 Z="82" value=".00000000000000000E+000"/>
    <e0 Z="83" value=".00000000000000000E+000"/>
    <e0 Z="84" value=".00000000000000000E+000"/>
    <e0 Z="85" value=".00000000000000000E+000"/>
    <e0 Z="86" value=".00000000000000000E+000"/>
    <e0 Z="87" value=".00000000000000000E+000"/>
    <e0 Z="88" value=".00000000000000000E+000"/>
    <e0 Z="89" value=".00000000000000000E+000"/>
    <e0 Z="90" value=".00000000000000000E+000"/>
    <e0 Z="91" value=".00000000000000000E+000"/>
    <e0 Z="92" value=".00000000000000000E+000"/>
    <e0 Z="93" value=".00000000000000000E+000"/>
    <e0 Z="94" value=".00000000000000000E+000"/>
    <e0 Z="95" value=".00000000000000000E+000"/>
    <e0 Z="96" value=".00000000000000000E+000"/>
    <e0 Z="97" value=".00000000000000000E+000"/>
    <e0 Z="98" value=".00000000000000000E+000"/>
    <e0 Z="99" value=".00000000000000000E+000"/>
    <e0 Z="100" value=".00000000000000000E+000"/>
    <e0 Z="101" value=".00000000000000000E+000"/>
    <e0 Z="102" value=".00000000000000000E+000"/>
    <e0 Z="103" value=".00000000000000000E+000"/>
    <e0 Z="104" value=".00000000000000000E+000"/>
    <e0 Z="105" value=".00000000000000000E+000"/>
    <e0 Z="106" value=".00000000000000000E+000"/>
    <e0 Z="107" value=".00000000000000000E+000"/>
    <e0 Z="108" value=".00000000000000000E+000"/>
    <e0 Z="109" value=".00000000000000000E+000"/>
    <e0 Z="110" value=".00000000000000000E+000"/>
    <e0 Z="111" value=".00000000000000000E+000"/>
    <e0 Z="112" value=".00000000000000000E+000"/>
    <e0 Z="113" value=".00000000000000000E+000"/>
    <e0 Z="114" value=".00000000000000000E+000"/>
    <e0 Z="115" value=".00000000000000000E+000"/>
    <e0 Z="116" value=".00000000000000000E+000"/>
    <e0 Z="117" value=".00000000000000000E+000"/>
    <e0 Z="118" value=".00000000000000000E+000"/>
  </GAP_data>
  <gpSparse label="GAP_2020_5_4_-300_14_18_32_146" n_coordinate="3">
    <gpCoordinates label="GAP_2020_5_4_-300_14_18_32_1461" dimensions="1" signal_variance=".50000000000000000" signal_mean=".00000000000000000E+000" sparsified="T" n_permutations="1" covariance_type="1" n_sparseX="10" sparseX_filename="GAP.xml.sparseX.GAP_2020_5_4_-300_14_18_32_1461" sparseX_md5sum="6d515bcb824e747bdc99af39f47a850c">
      <theta>  0.10000000000000000E+001 </theta>
      <descriptor>distance_2b cutoff=4.0 covariance_type=ard_se delta=0.5 theta_uniform=1.0 sparse_method=uniform               n_sparse=10 Z1=8 Z2=8</descriptor>
      <permutation i="1">1  </permutation>
      <sparseX i="1" alpha="8308770.0707462365" sparseCutoff="1.0000000000000000"/>
      <sparseX i="2" alpha="-8001253.1235361416" sparseCutoff="1.0000000000000000"/>
      <sparseX i="3" alpha="159304.22792937758" sparseCutoff="1.0000000000000000"/>
      <sparseX i="4" alpha="-762962.95445348974" sparseCutoff="1.0000000000000000"/>
      <sparseX i="5" alpha="-450189.77567862492" sparseCutoff=".18338458143653980E-001"/>
      <sparseX i="6" alpha="476176.38129383296" sparseCutoff="1.0000000000000000"/>
      <sparseX i="7" alpha="-364832.60449777998" sparseCutoff="1.0000000000000000"/>
      <sparseX i="8" alpha="-182562.03487063246" sparseCutoff="1.0000000000000000"/>
      <sparseX i="9" alpha="14001.293005208376" sparseCutoff="1.0000000000000000"/>
      <sparseX i="10" alpha="361694.32525682205" sparseCutoff="1.0000000000000000"/>
    </gpCoordinates>
    <gpCoordinates label="GAP_2020_5_4_-300_14_18_32_1462" dimensions="1" signal_variance=".50000000000000000" signal_mean=".00000000000000000E+000" sparsified="T" n_permutations="1" covariance_type="1" n_sparseX="10" sparseX_filename="GAP.xml.sparseX.GAP_2020_5_4_-300_14_18_32_1462" sparseX_md5sum="15c449ff7d9d5ae7932a3c740d40f7fc">
      <theta>  0.10000000000000000E+001 </theta>
      <descriptor>distance_2b cutoff=4.0 covariance_type=ard_se delta=0.5 theta_uniform=1.0 sparse_method=uniform               n_sparse=10 Z1=8 Z2=1</descriptor>
      <permutation i="1">1  </permutation>
      <sparseX i="1" alpha="-2089602.0634074260" sparseCutoff=".42980933361084994E-001"/>
      <sparseX i="2" alpha="1965653.8575631753" sparseCutoff="1.0000000000000000"/>
      <sparseX i="3" alpha="65277.857258376665" sparseCutoff="1.0000000000000000"/>
      <sparseX i="4" alpha="-902087.82138156262" sparseCutoff="1.0000000000000000"/>
      <sparseX i="5" alpha="-1949560.7777923127" sparseCutoff="1.0000000000000000"/>
      <sparseX i="6" alpha="468958.49548819714" sparseCutoff=".41100668180381045"/>
      <sparseX i="7" alpha="-216037.28705557913" sparseCutoff="1.0000000000000000"/>
      <sparseX i="8" alpha="1370638.8304952455" sparseCutoff="1.0000000000000000"/>
      <sparseX i="9" alpha="265531.92958027648" sparseCutoff="1.0000000000000000"/>
      <sparseX i="10" alpha="-702324.05229438050" sparseCutoff="1.0000000000000000"/>
    </gpCoordinates>
    <gpCoordinates label="GAP_2020_5_4_-300_14_18_32_1463" dimensions="1" signal_variance=".50000000000000000" signal_mean=".00000000000000000E+000" sparsified="T" n_permutations="1" covariance_type="1" n_sparseX="10" sparseX_filename="GAP.xml.sparseX.GAP_2020_5_4_-300_14_18_32_1463" sparseX_md5sum="f3baee61b6ce6a439dd393d192c8bbad">
      <theta>  0.10000000000000000E+001 </theta>
      <descriptor>distance_2b cutoff=4.0 covariance_type=ard_se delta=0.5 theta_uniform=1.0 sparse_method=uniform               n_sparse=10 Z1=1 Z2=1</descriptor>
      <permutation i="1">1  </permutation>
      <sparseX i="1" alpha="191055.03232654789" sparseCutoff="1.0000000000000000"/>
      <sparseX i="2" alpha="3739427.1430440620" sparseCutoff="1.0000000000000000"/>
      <sparseX i="3" alpha="-3194198.1626173183" sparseCutoff="1.0000000000000000"/>
      <sparseX i="4" alpha="-3995428.8166477019" sparseCutoff="1.0000000000000000"/>
      <sparseX i="5" alpha="3367792.3315206375" sparseCutoff="1.0000000000000000"/>
      <sparseX i="6" alpha="-152429.21377195403" sparseCutoff=".10719077944263472"/>
      <sparseX i="7" alpha="-232541.53562379011" sparseCutoff="1.0000000000000000"/>
      <sparseX i="8" alpha="580957.79715382610" sparseCutoff="1.0000000000000000"/>
      <sparseX i="9" alpha="-472269.45792447584" sparseCutoff="1.0000000000000000"/>
      <sparseX i="10" alpha="31578.976891180831" sparseCutoff="1.0000000000000000"/>
    </gpCoordinates>
  </gpSparse>
  <command_line><![CDATA[ energy_parameter_name=energy force_parameter_name=forces do_copy_at_file=F sparse_separate_file=T gp_file=GAP.xml at_file=train.xyz default_sigma={0.008 0.04 0 0} gap={distance_2b cutoff=4.0 covariance_type=ard_se delta=0.5 theta_uniform=1.0 sparse_method=uniform add_species=T n_sparse=10}]]></command_line>
</GAP_params>
</GAP_2020_5_4_-300_14_18_32_146>
