<GAP_2020_5_4_-300_0_27_29_749>
<Potential label="GAP_2020_5_4_-300_0_27_29_749" init_args="IP GAP label=GAP_2020_5_4_-300_0_27_29_749"/>
<GAP_params label="GAP_2020_5_4_-300_0_27_29_749" gap_version="1587393685">
  <GAP_data do_core="F">
    <e0 Z="1" value="3.2100000000000000"/>
    <e0 Z="2" value=".00000000000000000E+000"/>
    <e0 Z="3" value=".00000000000000000E+000"/>
    <e0 Z="4" value=".00000000000000000E+000"/>
    <e0 Z="5" value=".00000000000000000E+000"/>
    <e0 Z="6" value=".00000000000000000E+000"/>
    <e0 Z="7" value=".00000000000000000E+000"/>
    <e0 Z="8" value="4.5999999999999996"/>
    <e0 Z="9" value=".00000000000000000E+000"/>
    <e0 Z="10" value=".00000000000000000E+000"/>
    <e0 Z="11" value=".00000000000000000E+000"/>
    <e0 Z="12" value=".00000000000000000E+000"/>
    <e0 Z="13" value=".00000000000000000E+000"/>
    <e0 Z="14" value=".00000000000000000E+000"/>
    <e0 Z="15" value=".00000000000000000E+000"/>
    <e0 Z="16" value=".00000000000000000E+000"/>
    <e0 Z="17" value=".00000000000000000E+000"/>
    <e0 Z="18" value=".00000000000000000E+000"/>
    <e0 Z="19" value=".00000000000000000E+000"/>
    <e0 Z="20" value=".00000000000000000E+000"/>
    <e0 Z="21" value=".00000000000000000E+000"/>
    <e0 Z="22" value=".00000000000000000E+000"/>
    <e0 Z="23" value=".00000000000000000E+000"/>
    <e0 Z="24" value=".00000000000000000E+000"/>
    <e0 Z="25" value=".00000000000000000E+000"/>
    <e0 Z="26" value=".00000000000000000E+000"/>
    <e0 Z="27" value=".00000000000000000E+000"/>
    <e0 Z="28" value=".00000000000000000E+000"/>
    <e0 Z="29" value=".00000000000000000E+000"/>
    <e0 Z="30" value=".00000000000000000E+000"/>
    <e0 Z="31" value=".00000000000000000E+000"/>
    <e0 Z="32" value=".00000000000000000E+000"/>
    <e0 Z="33" value=".00000000000000000E+000"/>
    <e0 Z="34" value=".00000000000000000E+000"/>
    <e0 Z="35" value=".00000000000000000E+000"/>
    <e0 Z="36" value=".00000000000000000E+000"/>
    <e0 Z="37" value=".00000000000000000E+000"/>
    <e0 Z="38" value=".00000000000000000E+000"/>
    <e0 Z="39" value=".00000000000000000E+000"/>
    <e0 Z="40" value=".00000000000000000E+000"/>
    <e0 Z="41" value=".00000000000000000E+000"/>
    <e0 Z="42" value=".00000000000000000E+000"/>
    <e0 Z="43" value=".00000000000000000E+000"/>
    <e0 Z="44" value=".00000000000000000E+000"/>
    <e0 Z="45" value=".00000000000000000E+000"/>
    <e0 Z="46" value=".00000000000000000E+000"/>
    <e0 Z="47" value=".00000000000000000E+000"/>
    <e0 Z="48" value=".00000000000000000E+000"/>
    <e0 Z="49" value=".00000000000000000E+000"/>
    <e0 Z="50" value=".00000000000000000E+000"/>
    <e0 Z="51" value=".00000000000000000E+000"/>
    <e0 Z="52" value=".00000000000000000E+000"/>
    <e0 Z="53" value=".00000000000000000E+000"/>
    <e0 Z="54" value=".00000000000000000E+000"/>
    <e0 Z="55" value=".00000000000000000E+000"/>
    <e0 Z="56" value=".00000000000000000E+000"/>
    <e0 Z="57" value=".00000000000000000E+000"/>
    <e0 Z="58" value=".00000000000000000E+000"/>
    <e0 Z="59" value=".00000000000000000E+000"/>
    <e0 Z="60" value=".00000000000000000E+000"/>
    <e0 Z="61" value=".00000000000000000E+000"/>
    <e0 Z="62" value=".00000000000000000E+000"/>
    <e0 Z="63" value=".00000000000000000E+000"/>
    <e0 Z="64" value=".00000000000000000E+000"/>
    <e0 Z="65" value=".00000000000000000E+000"/>
    <e0 Z="66" value=".00000000000000000E+000"/>
    <e0 Z="67" value=".00000000000000000E+000"/>
    <e0 Z="68" value=".00000000000000000E+000"/>
    <e0 Z="69" value=".00000000000000000E+000"/>
    <e0 Z="70" value=".00000000000000000E+000"/>
    <e0 Z="71" value=".00000000000000000E+000"/>
    <e0 Z="72" value=".00000000000000000E+000"/>
    <e0 Z="73" value=".00000000000000000E+000"/>
    <e0 Z="74" value=".00000000000000000E+000"/>
    <e0 Z="75" value=".00000000000000000E+000"/>
    <e0 Z="76" value=".00000000000000000E+000"/>
    <e0 Z="77" value=".00000000000000000E+000"/>
    <e0 Z="78" value=".00000000000000000E+000"/>
    <e0 Z="79" value=".00000000000000000E+000"/>
    <e0 Z="80" value=".00000000000000000E+000"/>
    <e0 Z="81" value=".00000000000000000E+000"/>
    <e0 Z="82" value=".00000000000000000E+000"/>
    <e0 Z="83" value=".00000000000000000E+000"/>
    <e0 Z="84" value=".00000000000000000E+000"/>
    <e0 Z="85" value=".00000000000000000E+000"/>
    <e0 Z="86" value=".00000000000000000E+000"/>
    <e0 Z="87" value=".00000000000000000E+000"/>
    <e0 Z="88" value=".00000000000000000E+000"/>
    <e0 Z="89" value=".00000000000000000E+000"/>
    <e0 Z="90" value=".00000000000000000E+000"/>
    <e0 Z="91" value=".00000000000000000E+000"/>
    <e0 Z="92" value=".00000000000000000E+000"/>
    <e0 Z="93" value=".00000000000000000E+000"/>
    <e0 Z="94" value=".00000000000000000E+000"/>
    <e0 Z="95" value=".00000000000000000E+000"/>
    <e0 Z="96" value=".00000000000000000E+000"/>
    <e0 Z="97" value=".00000000000000000E+000"/>
    <e0 Z="98" value=".00000000000000000E+000"/>
    <e0 Z="99" value=".00000000000000000E+000"/>
    <e0 Z="100" value=".00000000000000000E+000"/>
    <e0 Z="101" value=".00000000000000000E+000"/>
    <e0 Z="102" value=".00000000000000000E+000"/>
    <e0 Z="103" value=".00000000000000000E+000"/>
    <e0 Z="104" value=".00000000000000000E+000"/>
    <e0 Z="105" value=".00000000000000000E+000"/>
    <e0 Z="106" value=".00000000000000000E+000"/>
    <e0 Z="107" value=".00000000000000000E+000"/>
    <e0 Z="108" value=".00000000000000000E+000"/>
    <e0 Z="109" value=".00000000000000000E+000"/>
    <e0 Z="110" value=".00000000000000000E+000"/>
    <e0 Z="111" value=".00000000000000000E+000"/>
    <e0 Z="112" value=".00000000000000000E+000"/>
    <e0 Z="113" value=".00000000000000000E+000"/>
    <e0 Z="114" value=".00000000000000000E+000"/>
    <e0 Z="115" value=".00000000000000000E+000"/>
    <e0 Z="116" value=".00000000000000000E+000"/>
    <e0 Z="117" value=".00000000000000000E+000"/>
    <e0 Z="118" value=".00000000000000000E+000"/>
  </GAP_data>
  <gpSparse label="GAP_2020_5_4_-300_0_27_29_749" n_coordinate="9">
    <gpCoordinates label="GAP_2020_5_4_-300_0_27_29_7491" dimensions="1" signal_variance=".50000000000000000" signal_mean=".00000000000000000E+000" sparsified="T" n_permutations="1" covariance_type="1" n_sparseX="10" sparseX_filename="GAP_3b.xml.sparseX.GAP_2020_5_4_-300_0_27_29_7491" sparseX_md5sum="6d515bcb824e747bdc99af39f47a850c">
      <theta>  0.10000000000000000E+001 </theta>
      <descriptor>distance_2b cutoff=4.0 covariance_type=ard_se delta=0.5 theta_uniform=1.0 sparse_method=uniform               n_sparse=10 Z1=8 Z2=8</descriptor>
      <permutation i="1">1  </permutation>
      <sparseX i="1" alpha="4738625.1835886016" sparseCutoff="1.0000000000000000"/>
      <sparseX i="2" alpha="-4544396.5417047469" sparseCutoff="1.0000000000000000"/>
      <sparseX i="3" alpha="83579.502617620848" sparseCutoff="1.0000000000000000"/>
      <sparseX i="4" alpha="-467138.10349491710" sparseCutoff="1.0000000000000000"/>
      <sparseX i="5" alpha="-205911.47755357937" sparseCutoff=".18338458143653980E-001"/>
      <sparseX i="6" alpha="308259.20967814006" sparseCutoff="1.0000000000000000"/>
      <sparseX i="7" alpha="-250026.67917679501" sparseCutoff="1.0000000000000000"/>
      <sparseX i="8" alpha="-131530.73232581717" sparseCutoff="1.0000000000000000"/>
      <sparseX i="9" alpha="10427.679839385219" sparseCutoff="1.0000000000000000"/>
      <sparseX i="10" alpha="256051.82787916850" sparseCutoff="1.0000000000000000"/>
    </gpCoordinates>
    <gpCoordinates label="GAP_2020_5_4_-300_0_27_29_7492" dimensions="1" signal_variance=".50000000000000000" signal_mean=".00000000000000000E+000" sparsified="T" n_permutations="1" covariance_type="1" n_sparseX="10" sparseX_filename="GAP_3b.xml.sparseX.GAP_2020_5_4_-300_0_27_29_7492" sparseX_md5sum="15c449ff7d9d5ae7932a3c740d40f7fc">
      <theta>  0.10000000000000000E+001 </theta>
      <descriptor>distance_2b cutoff=4.0 covariance_type=ard_se delta=0.5 theta_uniform=1.0 sparse_method=uniform               n_sparse=10 Z1=8 Z2=1</descriptor>
      <permutation i="1">1  </permutation>
      <sparseX i="1" alpha="-1017535.5266661738" sparseCutoff=".42980933361084994E-001"/>
      <sparseX i="2" alpha="1125469.7247929010" sparseCutoff="1.0000000000000000"/>
      <sparseX i="3" alpha="42512.336985894137" sparseCutoff="1.0000000000000000"/>
      <sparseX i="4" alpha="-473659.76960387552" sparseCutoff="1.0000000000000000"/>
      <sparseX i="5" alpha="-1093479.8895638741" sparseCutoff="1.0000000000000000"/>
      <sparseX i="6" alpha="232377.98031276077" sparseCutoff=".41100668180381045"/>
      <sparseX i="7" alpha="-138306.36948107553" sparseCutoff="1.0000000000000000"/>
      <sparseX i="8" alpha="734234.82728929643" sparseCutoff="1.0000000000000000"/>
      <sparseX i="9" alpha="166248.04931340116" sparseCutoff="1.0000000000000000"/>
      <sparseX i="10" alpha="-414747.43459993211" sparseCutoff="1.0000000000000000"/>
    </gpCoordinates>
    <gpCoordinates label="GAP_2020_5_4_-300_0_27_29_7493" dimensions="1" signal_variance=".50000000000000000" signal_mean=".00000000000000000E+000" sparsified="T" n_permutations="1" covariance_type="1" n_sparseX="10" sparseX_filename="GAP_3b.xml.sparseX.GAP_2020_5_4_-300_0_27_29_7493" sparseX_md5sum="f3baee61b6ce6a439dd393d192c8bbad">
      <theta>  0.10000000000000000E+001 </theta>
      <descriptor>distance_2b cutoff=4.0 covariance_type=ard_se delta=0.5 theta_uniform=1.0 sparse_method=uniform               n_sparse=10 Z1=1 Z2=1</descriptor>
      <permutation i="1">1  </permutation>
      <sparseX i="1" alpha="144869.06682017792" sparseCutoff="1.0000000000000000"/>
      <sparseX i="2" alpha="2975137.5903133578" sparseCutoff="1.0000000000000000"/>
      <sparseX i="3" alpha="-2446790.3853597608" sparseCutoff="1.0000000000000000"/>
      <sparseX i="4" alpha="-3175077.4205650841" sparseCutoff="1.0000000000000000"/>
      <sparseX i="5" alpha="2583181.8295093295" sparseCutoff="1.0000000000000000"/>
      <sparseX i="6" alpha="-113971.47532837116" sparseCutoff=".10719077944263472"/>
      <sparseX i="7" alpha="-186637.03212380191" sparseCutoff="1.0000000000000000"/>
      <sparseX i="8" alpha="457920.23896111519" sparseCutoff="1.0000000000000000"/>
      <sparseX i="9" alpha="-365893.60354062280" sparseCutoff="1.0000000000000000"/>
      <sparseX i="10" alpha="25540.837740278763" sparseCutoff="1.0000000000000000"/>
    </gpCoordinates>
    <gpCoordinates label="GAP_2020_5_4_-300_0_27_29_7494" dimensions="3" signal_variance=".50000000000000000" signal_mean=".00000000000000000E+000" sparsified="T" n_permutations="1" covariance_type="1" n_sparseX="30" sparseX_filename="GAP_3b.xml.sparseX.GAP_2020_5_4_-300_0_27_29_7494" sparseX_md5sum="799477717264a32e7a858a76255adb5d">
      <theta>  0.24373415881013738E+001  0.34077134397662041E+001  0.30377575565275379E+001 </theta>
      <descriptor> angle_3b cutoff=3.5 covariance_type=ard_se delta=0.5 theta_fac=0.5               n_sparse=30 sparse_method=uniform Z=8 Z1=8 Z2=8</descriptor>
      <permutation i="1">1 2 3  </permutation>
      <sparseX i="1" alpha="6097.4288334840194" sparseCutoff=".80363451769553806"/>
      <sparseX i="2" alpha="-1212.9741585186689" sparseCutoff=".80363451769553806"/>
      <sparseX i="3" alpha="1151.5841413359515" sparseCutoff=".90146159007791460"/>
      <sparseX i="4" alpha="-5912.3753226746612" sparseCutoff=".90760141008718243"/>
      <sparseX i="5" alpha="767.74254444182293" sparseCutoff="1.0000000000000000"/>
      <sparseX i="6" alpha="-289.94999957288820" sparseCutoff=".79650943434212418E-002"/>
      <sparseX i="7" alpha="-661.47293429497211" sparseCutoff=".49507547328308849"/>
      <sparseX i="8" alpha="27.313230644415633" sparseCutoff="1.0000000000000000"/>
      <sparseX i="9" alpha="5.8211734448519845" sparseCutoff="1.0000000000000000"/>
      <sparseX i="10" alpha="-1497.8566999384409" sparseCutoff=".13744097620139367"/>
      <sparseX i="11" alpha="865.89024393537670" sparseCutoff=".16475322078637183"/>
      <sparseX i="12" alpha="-66.384380523495679" sparseCutoff="1.0000000000000000"/>
      <sparseX i="13" alpha="-3639.7761768057094" sparseCutoff=".11626526355295791"/>
      <sparseX i="14" alpha="41.669551470835849" sparseCutoff="1.0000000000000000"/>
      <sparseX i="15" alpha="-204.07344923369700" sparseCutoff=".89152763011798353"/>
      <sparseX i="16" alpha="460.85914899732984" sparseCutoff=".69894056871171839"/>
      <sparseX i="17" alpha="861.06976070789267" sparseCutoff=".63167528714941634E-001"/>
      <sparseX i="18" alpha="735.15800091247627" sparseCutoff=".39753847875470377"/>
      <sparseX i="19" alpha="371.01045940134333" sparseCutoff=".49832325624441509E-001"/>
      <sparseX i="20" alpha="-38.166979043878030" sparseCutoff="1.0000000000000000"/>
      <sparseX i="21" alpha="-38.623750422815966" sparseCutoff="1.0000000000000000"/>
      <sparseX i="22" alpha="-18.052954029527108" sparseCutoff="1.0000000000000000"/>
      <sparseX i="23" alpha="22.731117621792848" sparseCutoff=".98739065724228270"/>
      <sparseX i="24" alpha="76.448476975275355" sparseCutoff="1.0000000000000000"/>
      <sparseX i="25" alpha="-170.74268346196629" sparseCutoff=".46642688917571473"/>
      <sparseX i="26" alpha="-247.50704784059377" sparseCutoff="1.0000000000000000"/>
      <sparseX i="27" alpha="50478.739230160929" sparseCutoff=".41718285480333850E-002"/>
      <sparseX i="28" alpha="333.45750246873121" sparseCutoff="1.0000000000000000"/>
      <sparseX i="29" alpha="-15398.391800071915" sparseCutoff=".79664960956807307E-002"/>
      <sparseX i="30" alpha="-159.34844318665458" sparseCutoff="1.0000000000000000"/>
    </gpCoordinates>
    <gpCoordinates label="GAP_2020_5_4_-300_0_27_29_7495" dimensions="3" signal_variance=".50000000000000000" signal_mean=".00000000000000000E+000" sparsified="T" n_permutations="1" covariance_type="1" n_sparseX="30" sparseX_filename="GAP_3b.xml.sparseX.GAP_2020_5_4_-300_0_27_29_7495" sparseX_md5sum="2cc5b166fe08796977175620dd112c75">
      <theta>  0.25475794992701886E+001  0.34676822602317516E+001  0.30289352036019097E+001 </theta>
      <descriptor> angle_3b cutoff=3.5 covariance_type=ard_se delta=0.5 theta_fac=0.5               n_sparse=30 sparse_method=uniform Z=8 Z1=8 Z2=1</descriptor>
      <permutation i="1">1 2 3  </permutation>
      <sparseX i="1" alpha="315.93773349748352" sparseCutoff=".44295143425719613"/>
      <sparseX i="2" alpha="343.42717625777772" sparseCutoff=".89645664736063979"/>
      <sparseX i="3" alpha="55.907064479676706" sparseCutoff=".89645664736063979"/>
      <sparseX i="4" alpha="-472.37880361695142" sparseCutoff=".89645664736063979"/>
      <sparseX i="5" alpha="53.507571641023347" sparseCutoff=".89645664412396298"/>
      <sparseX i="6" alpha="-1890.8852725323998" sparseCutoff=".41701763603987363E-001"/>
      <sparseX i="7" alpha="39.894535099838983" sparseCutoff=".44295143585648222"/>
      <sparseX i="8" alpha="-1522.7269976919849" sparseCutoff=".41701762084793204E-001"/>
      <sparseX i="9" alpha="-662.08479182920860" sparseCutoff=".89782597837501310"/>
      <sparseX i="10" alpha="-1634.5997593214697" sparseCutoff=".89418303201954907"/>
      <sparseX i="11" alpha="1549.6532563239336" sparseCutoff=".89832743971433948"/>
      <sparseX i="12" alpha="1169.6424334999606" sparseCutoff=".85502253476916279"/>
      <sparseX i="13" alpha="-929.18925460257822" sparseCutoff=".95242462157605090"/>
      <sparseX i="14" alpha="374.61711314486774" sparseCutoff=".92841233869235218"/>
      <sparseX i="15" alpha="-107.28691259135701" sparseCutoff=".92841233869235218"/>
      <sparseX i="16" alpha="-132.89441407080156" sparseCutoff=".86910786047262434"/>
      <sparseX i="17" alpha="333.83182894386783" sparseCutoff=".95642647792745339"/>
      <sparseX i="18" alpha="377.13163141336287" sparseCutoff=".42335132537079512"/>
      <sparseX i="19" alpha="-728.42250789370166" sparseCutoff=".17854038834959202"/>
      <sparseX i="20" alpha="-1860.8812996815220" sparseCutoff=".64315169724745436E-001"/>
      <sparseX i="21" alpha="141.73839096741889" sparseCutoff="1.0000000000000000"/>
      <sparseX i="22" alpha="-105.80500021495831" sparseCutoff="1.0000000000000000"/>
      <sparseX i="23" alpha="-12051.819640190404" sparseCutoff=".13715650538263180E-001"/>
      <sparseX i="24" alpha="3177.4349318578879" sparseCutoff=".30697089968187596E-001"/>
      <sparseX i="25" alpha="38.787654006004509" sparseCutoff="1.0000000000000000"/>
      <sparseX i="26" alpha="10768.050785706200" sparseCutoff=".20139090434805107E-001"/>
      <sparseX i="27" alpha="54.950400993570952" sparseCutoff="1.0000000000000000"/>
      <sparseX i="28" alpha="-49.860200776366938" sparseCutoff="1.0000000000000000"/>
      <sparseX i="29" alpha="-350.88736179180250" sparseCutoff=".60870620181501078"/>
      <sparseX i="30" alpha="570.87194593542051" sparseCutoff=".30727229906406800"/>
    </gpCoordinates>
    <gpCoordinates label="GAP_2020_5_4_-300_0_27_29_7496" dimensions="3" signal_variance=".50000000000000000" signal_mean=".00000000000000000E+000" sparsified="T" n_permutations="1" covariance_type="1" n_sparseX="30" sparseX_filename="GAP_3b.xml.sparseX.GAP_2020_5_4_-300_0_27_29_7496" sparseX_md5sum="e147f6cc4daa0e86ae8fa4863cce3733">
      <theta>  0.25327430020220958E+001  0.33527897730728249E+001  0.31907163464020423E+001 </theta>
      <descriptor> angle_3b cutoff=3.5 covariance_type=ard_se delta=0.5 theta_fac=0.5               n_sparse=30 sparse_method=uniform Z=8 Z1=1 Z2=1</descriptor>
      <permutation i="1">1 2 3  </permutation>
      <sparseX i="1" alpha="252.53942113580317" sparseCutoff=".24414826327788974"/>
      <sparseX i="2" alpha="193.54620695869329" sparseCutoff=".49411361626981742"/>
      <sparseX i="3" alpha="-340.91694857438932" sparseCutoff=".49411361626981742"/>
      <sparseX i="4" alpha="378.77573525806991" sparseCutoff=".49411361119943170"/>
      <sparseX i="5" alpha="8.4102310790607735" sparseCutoff="1.0000000000000000"/>
      <sparseX i="6" alpha="11051.932892131228" sparseCutoff=".22985393914892498E-001"/>
      <sparseX i="7" alpha="1322.5483646528667" sparseCutoff=".24414826015656219"/>
      <sparseX i="8" alpha="-876.30586877792484" sparseCutoff=".46518438707288612E-001"/>
      <sparseX i="9" alpha="10501.679491043080" sparseCutoff=".46518438707288612E-001"/>
      <sparseX i="10" alpha="-8.0424640641203808" sparseCutoff="1.0000000000000000"/>
      <sparseX i="11" alpha="-123.43294838616097" sparseCutoff="1.0000000000000000"/>
      <sparseX i="12" alpha="165.38052644399031" sparseCutoff="1.0000000000000000"/>
      <sparseX i="13" alpha="-3960.4464338008997" sparseCutoff=".75943646340687218E-001"/>
      <sparseX i="14" alpha="201.14904078053641" sparseCutoff=".27761627485228768"/>
      <sparseX i="15" alpha="-230.18704429172118" sparseCutoff="1.0000000000000000"/>
      <sparseX i="16" alpha="-1809.3950653954282" sparseCutoff=".63780879943779079"/>
      <sparseX i="17" alpha="-77.962775381024912" sparseCutoff="1.0000000000000000"/>
      <sparseX i="18" alpha="-227.77612352968902" sparseCutoff="1.0000000000000000"/>
      <sparseX i="19" alpha="1051.1426248278362" sparseCutoff=".96017171203694462"/>
      <sparseX i="20" alpha="-162.30946571655272" sparseCutoff=".44981917953940093"/>
      <sparseX i="21" alpha="-1118.7453142099564" sparseCutoff=".77781525036433130"/>
      <sparseX i="22" alpha="2958.9054280746327" sparseCutoff=".35951426918706059"/>
      <sparseX i="23" alpha="-16474.314748049179" sparseCutoff=".30918767610214837E-001"/>
      <sparseX i="24" alpha="103.82575834359487" sparseCutoff="1.0000000000000000"/>
      <sparseX i="25" alpha="-348.59193013954462" sparseCutoff=".45467711053464588E-001"/>
      <sparseX i="26" alpha="-4038.9728663391297" sparseCutoff=".13885482783767722E-001"/>
      <sparseX i="27" alpha="688.37904193610916" sparseCutoff=".39678626406377038"/>
      <sparseX i="28" alpha="-1938.9744215394398" sparseCutoff=".26001498039294946"/>
      <sparseX i="29" alpha="-1.1728866723031692" sparseCutoff="1.0000000000000000"/>
      <sparseX i="30" alpha="283.07961814162081" sparseCutoff="1.0000000000000000"/>
    </gpCoordinates>
    <gpCoordinates label="GAP_2020_5_4_-300_0_27_29_7497" dimensions="3" signal_variance=".50000000000000000" signal_mean=".00000000000000000E+000" sparsified="T" n_permutations="1" covariance_type="1" n_sparseX="30" sparseX_filename="GAP_3b.xml.sparseX.GAP_2020_5_4_-300_0_27_29_7497" sparseX_md5sum="fe95c526c41079021a1b4f7b7137f3f4">
      <theta>  0.23487960466856306E+001  0.33065093197503166E+001  0.30622000739277975E+001 </theta>
      <descriptor> angle_3b cutoff=3.5 covariance_type=ard_se delta=0.5 theta_fac=0.5               n_sparse=30 sparse_method=uniform Z=1 Z1=8 Z2=8</descriptor>
      <permutation i="1">1 2 3  </permutation>
      <sparseX i="1" alpha="370.68616457844070" sparseCutoff=".49411361502317780"/>
      <sparseX i="2" alpha="-1471.3961312437098" sparseCutoff=".46518437180578409E-001"/>
      <sparseX i="3" alpha="-1243.7623420532886" sparseCutoff=".49411361626981742"/>
      <sparseX i="4" alpha="-7583.2429662289114" sparseCutoff=".22985393218515927E-001"/>
      <sparseX i="5" alpha="272.92903534950852" sparseCutoff=".24414826327788974"/>
      <sparseX i="6" alpha="-72223.572678660916" sparseCutoff=".46518437180578964E-001"/>
      <sparseX i="7" alpha="-197.13625141085194" sparseCutoff="1.0000000000000000"/>
      <sparseX i="8" alpha="364.31710548228165" sparseCutoff=".64041312056561250"/>
      <sparseX i="9" alpha="426.20626994206481" sparseCutoff="1.0000000000000000"/>
      <sparseX i="10" alpha="237.45831269538783" sparseCutoff=".94428517557636860"/>
      <sparseX i="11" alpha="635.76092388809718" sparseCutoff=".14623443931006791"/>
      <sparseX i="12" alpha="45202.677677670472" sparseCutoff=".30918767610214837E-001"/>
      <sparseX i="13" alpha="7410.2392023089023" sparseCutoff=".32250518007126472E-001"/>
      <sparseX i="14" alpha="-19.884471574845261" sparseCutoff="1.0000000000000000"/>
      <sparseX i="15" alpha="113305.62293043364" sparseCutoff=".15092369988954357E-001"/>
      <sparseX i="16" alpha="2292.6573414456761" sparseCutoff=".21574232871987425"/>
      <sparseX i="17" alpha="-196.22367036368695" sparseCutoff="1.0000000000000000"/>
      <sparseX i="18" alpha="-13399.800549419844" sparseCutoff=".18703897463110686E-001"/>
      <sparseX i="19" alpha="113.17032169048687" sparseCutoff="1.0000000000000000"/>
      <sparseX i="20" alpha="-32.334563773505714" sparseCutoff=".17793994524457396"/>
      <sparseX i="21" alpha="261.22568713153771" sparseCutoff="1.0000000000000000"/>
      <sparseX i="22" alpha="-435.26438236247969" sparseCutoff="1.0000000000000000"/>
      <sparseX i="23" alpha="63.602855342236424" sparseCutoff="1.0000000000000000"/>
      <sparseX i="24" alpha="-164.89262496985185" sparseCutoff="1.0000000000000000"/>
      <sparseX i="25" alpha="-113305.66728117660" sparseCutoff=".66696604143456906E-003"/>
      <sparseX i="26" alpha="2209.1825411968603" sparseCutoff=".10457495320320331"/>
      <sparseX i="27" alpha="403.38717298061727" sparseCutoff="1.0000000000000000"/>
      <sparseX i="28" alpha="-380.91770061405794" sparseCutoff="1.0000000000000000"/>
      <sparseX i="29" alpha="166.91511575282451" sparseCutoff="1.0000000000000000"/>
      <sparseX i="30" alpha="-2048.7290359062395" sparseCutoff=".17693247234083320"/>
    </gpCoordinates>
    <gpCoordinates label="GAP_2020_5_4_-300_0_27_29_7498" dimensions="3" signal_variance=".50000000000000000" signal_mean=".00000000000000000E+000" sparsified="T" n_permutations="1" covariance_type="1" n_sparseX="30" sparseX_filename="GAP_3b.xml.sparseX.GAP_2020_5_4_-300_0_27_29_7498" sparseX_md5sum="919862b2aac311c6d13b5f62b6044a08">
      <theta>  0.25271176581474117E+001  0.40094353031060637E+001  0.30371226172745995E+001 </theta>
      <descriptor> angle_3b cutoff=3.5 covariance_type=ard_se delta=0.5 theta_fac=0.5               n_sparse=30 sparse_method=uniform Z=1 Z1=8 Z2=1</descriptor>
      <permutation i="1">1 2 3  </permutation>
      <sparseX i="1" alpha="-6073.6179804405438" sparseCutoff=".16266523664939359E-001"/>
      <sparseX i="2" alpha="-68.573009829143146" sparseCutoff="1.0000000000000000"/>
      <sparseX i="3" alpha="-146.35573103500104" sparseCutoff=".89645664736063979"/>
      <sparseX i="4" alpha="9288.9969899784955" sparseCutoff=".16266522458977695E-001"/>
      <sparseX i="5" alpha="33.113068240046502" sparseCutoff="1.0000000000000000"/>
      <sparseX i="6" alpha="-1752.9147646803306" sparseCutoff=".15357698724018968E-002"/>
      <sparseX i="7" alpha="123.43968102087915" sparseCutoff=".44295143585648222"/>
      <sparseX i="8" alpha="18.946403197386800" sparseCutoff=".44295143131110121"/>
      <sparseX i="9" alpha="-89504.109023009718" sparseCutoff=".31081305217102728E-002"/>
      <sparseX i="10" alpha="-20171.316710884756" sparseCutoff=".15357696119208573E-002"/>
      <sparseX i="11" alpha="-4755.2310896322515" sparseCutoff=".46518437180578409E-001"/>
      <sparseX i="12" alpha="-1464.6556729891990" sparseCutoff=".46518437180578409E-001"/>
      <sparseX i="13" alpha="-14.044466240047694" sparseCutoff="1.0000000000000000"/>
      <sparseX i="14" alpha="-33.725344824446836" sparseCutoff=".89645664412396131"/>
      <sparseX i="15" alpha="110.35088982881268" sparseCutoff="1.0000000000000000"/>
      <sparseX i="16" alpha="-269.60675788743157" sparseCutoff=".31081305217102728E-002"/>
      <sparseX i="17" alpha="59.317481843561787" sparseCutoff=".89027721603430543"/>
      <sparseX i="18" alpha="-669.47211130425478" sparseCutoff=".18092092906933266"/>
      <sparseX i="19" alpha="-191.65964546904962" sparseCutoff=".90400850964364365"/>
      <sparseX i="20" alpha="3450.7019043333385" sparseCutoff=".17903568175996948"/>
      <sparseX i="21" alpha="32.813759696296984" sparseCutoff="1.0000000000000000"/>
      <sparseX i="22" alpha="-155.43452058171380" sparseCutoff="1.0000000000000000"/>
      <sparseX i="23" alpha="14360.774815917530" sparseCutoff=".24074985717240704E-001"/>
      <sparseX i="24" alpha="-777.68951804013989" sparseCutoff=".13471957678393842"/>
      <sparseX i="25" alpha="33.066851587877856" sparseCutoff="1.0000000000000000"/>
      <sparseX i="26" alpha="-127.39968071708559" sparseCutoff="1.0000000000000000"/>
      <sparseX i="27" alpha="283.01810565078102" sparseCutoff=".90981211002486218"/>
      <sparseX i="28" alpha="-868.94219803192573" sparseCutoff=".20807530846033589"/>
      <sparseX i="29" alpha="330.27933244859901" sparseCutoff="1.0000000000000000"/>
      <sparseX i="30" alpha="-220.22558637875767" sparseCutoff="1.0000000000000000"/>
    </gpCoordinates>
    <gpCoordinates label="GAP_2020_5_4_-300_0_27_29_7499" dimensions="3" signal_variance=".50000000000000000" signal_mean=".00000000000000000E+000" sparsified="T" n_permutations="1" covariance_type="1" n_sparseX="30" sparseX_filename="GAP_3b.xml.sparseX.GAP_2020_5_4_-300_0_27_29_7499" sparseX_md5sum="c8c0e6c326523e1bd1afc6f3fbde28a0">
      <theta>  0.27052067132177804E+001  0.41878013919122106E+001  0.31902207995409437E+001 </theta>
      <descriptor> angle_3b cutoff=3.5 covariance_type=ard_se delta=0.5 theta_fac=0.5               n_sparse=30 sparse_method=uniform Z=1 Z1=1 Z2=1</descriptor>
      <permutation i="1">1 2 3  </permutation>
      <sparseX i="1" alpha="46930.488243025844" sparseCutoff=".26459977252522821E-003"/>
      <sparseX i="2" alpha="-7491.6728331384447" sparseCutoff=".26459977252521108E-003"/>
      <sparseX i="3" alpha="6045.8227652268097" sparseCutoff=".14582233268884045E-001"/>
      <sparseX i="4" alpha="-2052.6792944306235" sparseCutoff=".14582233268884045E-001"/>
      <sparseX i="5" alpha="-25920.135840044222" sparseCutoff=".31081310488785818E-002"/>
      <sparseX i="6" alpha="-777.22953897010166" sparseCutoff=".89645664736063979"/>
      <sparseX i="7" alpha="-772.40954206774654" sparseCutoff=".89645664412396131"/>
      <sparseX i="8" alpha="32.243370674018102" sparseCutoff="1.0000000000000000"/>
      <sparseX i="9" alpha="3740.9327334346663" sparseCutoff=".18092092906933266"/>
      <sparseX i="10" alpha="469.61622788606212" sparseCutoff="1.0000000000000000"/>
      <sparseX i="11" alpha="439.98407815913566" sparseCutoff="1.0000000000000000"/>
      <sparseX i="12" alpha="-139.65589768978725" sparseCutoff=".95940321961952546"/>
      <sparseX i="13" alpha="-846.44327835281035" sparseCutoff="1.0000000000000000"/>
      <sparseX i="14" alpha="898.36935113090317" sparseCutoff=".78070804907252767E-001"/>
      <sparseX i="15" alpha="15.855748382649397" sparseCutoff=".99238193897172822"/>
      <sparseX i="16" alpha="355.48701788323558" sparseCutoff=".98264166619094340"/>
      <sparseX i="17" alpha="-1218.0151835758863" sparseCutoff=".49093069632773867"/>
      <sparseX i="18" alpha="-495.04939490745124" sparseCutoff=".71614786793335250"/>
      <sparseX i="19" alpha="32653.638888771460" sparseCutoff=".52931566026597210E-002"/>
      <sparseX i="20" alpha="-147.43133024505488" sparseCutoff="1.0000000000000000"/>
      <sparseX i="21" alpha="1294.1054241291865" sparseCutoff="1.0000000000000000"/>
      <sparseX i="22" alpha="-245.36304246675616" sparseCutoff="1.0000000000000000"/>
      <sparseX i="23" alpha="9987.7175737297675" sparseCutoff=".20750641615045751E-001"/>
      <sparseX i="24" alpha="-52.918893097407270" sparseCutoff="1.0000000000000000"/>
      <sparseX i="25" alpha="40.016212675742089" sparseCutoff="1.0000000000000000"/>
      <sparseX i="26" alpha="-14881353.212735640" sparseCutoff=".14141738843531648E-003"/>
      <sparseX i="27" alpha="8783159.9821657725" sparseCutoff=".19883744377685586E-003"/>
      <sparseX i="28" alpha="-250.67642255361994" sparseCutoff=".18773800553059877"/>
      <sparseX i="29" alpha="519.88732183889658" sparseCutoff=".82635003052497102"/>
      <sparseX i="30" alpha="-9.0780756246676972" sparseCutoff="1.0000000000000000"/>
    </gpCoordinates>
  </gpSparse>
  <command_line><![CDATA[ energy_parameter_name=energy force_parameter_name=forces do_copy_at_file=F sparse_separate_file=T gp_file=GAP_3b.xml at_file=train.xyz default_sigma={0.008 0.04 0 0} gap={distance_2b cutoff=4.0 covariance_type=ard_se delta=0.5 theta_uniform=1.0 sparse_method=uniform add_species=T n_sparse=10 : angle_3b cutoff=3.5 covariance_type=ard_se delta=0.5 theta_fac=0.5 add_species=T n_sparse=30 sparse_method=uniform}]]></command_line>
</GAP_params>
</GAP_2020_5_4_-300_0_27_29_749>
